|--- changes_in_node <= 3.50
|   |--- no_of_nodes_in <= 3.50
|   |   |--- block_of_affere <= 1.50
|   |   |   |--- no_of_nodes_in <= 1.50
|   |   |   |   |--- changes_in_stru <= 1.50
|   |   |   |   |   |--- class: 1
|   |   |   |   |--- changes_in_stru >  1.50
|   |   |   |   |   |--- changes_in_stru <= 4.00
|   |   |   |   |   |   |--- special_forms <= 1.50
|   |   |   |   |   |   |   |--- dislocation_of <= 1.50
|   |   |   |   |   |   |   |   |--- class: 3
|   |   |   |   |   |   |   |--- dislocation_of >  1.50
|   |   |   |   |   |   |   |   |--- class: 2
|   |   |   |   |   |   |--- special_forms >  1.50
|   |   |   |   |   |   |   |--- class: 3
|   |   |   |   |   |--- changes_in_stru >  4.00
|   |   |   |   |   |   |--- dislocation_of <= 1.50
|   |   |   |   |   |   |   |--- class: 2
|   |   |   |   |   |   |--- dislocation_of >  1.50
|   |   |   |   |   |   |   |--- changes_in_node <= 2.50
|   |   |   |   |   |   |   |   |--- class: 2
|   |   |   |   |   |   |   |--- changes_in_node >  2.50
|   |   |   |   |   |   |   |   |--- changes_in_stru <= 6.50
|   |   |   |   |   |   |   |   |   |--- class: 2
|   |   |   |   |   |   |   |   |--- changes_in_stru >  6.50
|   |   |   |   |   |   |   |   |   |--- class: 3
|   |   |   |--- no_of_nodes_in >  1.50
|   |   |   |   |--- changes_in_stru <= 3.00
|   |   |   |   |   |--- class: 1
|   |   |   |   |--- changes_in_stru >  3.00
|   |   |   |   |   |--- changes_in_stru <= 4.50
|   |   |   |   |   |   |--- special_forms <= 2.50
|   |   |   |   |   |   |   |--- class: 2
|   |   |   |   |   |   |--- special_forms >  2.50
|   |   |   |   |   |   |   |--- dislocation_of <= 1.50
|   |   |   |   |   |   |   |   |--- class: 2
|   |   |   |   |   |   |   |--- dislocation_of >  1.50
|   |   |   |   |   |   |   |   |--- class: 3
|   |   |   |   |   |--- changes_in_stru >  4.50
|   |   |   |   |   |   |--- changes_in_stru <= 7.50
|   |   |   |   |   |   |   |--- class: 3
|   |   |   |   |   |   |--- changes_in_stru >  7.50
|   |   |   |   |   |   |   |--- dislocation_of <= 1.50
|   |   |   |   |   |   |   |   |--- class: 3
|   |   |   |   |   |   |   |--- dislocation_of >  1.50
|   |   |   |   |   |   |   |   |--- changes_in_node <= 2.50
|   |   |   |   |   |   |   |   |   |--- class: 2
|   |   |   |   |   |   |   |   |--- changes_in_node >  2.50
|   |   |   |   |   |   |   |   |   |--- special_forms <= 2.50
|   |   |   |   |   |   |   |   |   |   |--- class: 2
|   |   |   |   |   |   |   |   |   |--- special_forms >  2.50
|   |   |   |   |   |   |   |   |   |   |--- class: 3
|   |   |--- block_of_affere >  1.50
|   |   |   |--- changes_in_node <= 1.50
|   |   |   |   |--- class: 3
|   |   |   |--- changes_in_node >  1.50
|   |   |   |   |--- changes_in_node <= 2.50
|   |   |   |   |   |--- dislocation_of <= 1.50
|   |   |   |   |   |   |--- class: 2
|   |   |   |   |   |--- dislocation_of >  1.50
|   |   |   |   |   |   |--- no_of_nodes_in <= 1.50
|   |   |   |   |   |   |   |--- class: 2
|   |   |   |   |   |   |--- no_of_nodes_in >  1.50
|   |   |   |   |   |   |   |--- class: 3
|   |   |   |   |--- changes_in_node >  2.50
|   |   |   |   |   |--- no_of_nodes_in <= 2.50
|   |   |   |   |   |   |--- class: 2
|   |   |   |   |   |--- no_of_nodes_in >  2.50
|   |   |   |   |   |   |--- special_forms <= 2.50
|   |   |   |   |   |   |   |--- class: 2
|   |   |   |   |   |   |--- special_forms >  2.50
|   |   |   |   |   |   |   |--- changes_in_stru <= 5.00
|   |   |   |   |   |   |   |   |--- class: 2
|   |   |   |   |   |   |   |--- changes_in_stru >  5.00
|   |   |   |   |   |   |   |   |--- class: 3
|   |--- no_of_nodes_in >  3.50
|   |   |--- changes_in_node <= 2.50
|   |   |   |--- special_forms <= 2.50
|   |   |   |   |--- dislocation_of <= 1.50
|   |   |   |   |   |--- class: 2
|   |   |   |   |--- dislocation_of >  1.50
|   |   |   |   |   |--- class: 4
|   |   |   |--- special_forms >  2.50
|   |   |   |   |--- changes_in_stru <= 5.50
|   |   |   |   |   |--- changes_in_stru <= 4.50
|   |   |   |   |   |   |--- no_of_nodes_in <= 5.50
|   |   |   |   |   |   |   |--- class: 3
|   |   |   |   |   |   |--- no_of_nodes_in >  5.50
|   |   |   |   |   |   |   |--- no_of_nodes_in <= 6.50
|   |   |   |   |   |   |   |   |--- block_of_affere <= 1.50
|   |   |   |   |   |   |   |   |   |--- class: 2
|   |   |   |   |   |   |   |   |--- block_of_affere >  1.50
|   |   |   |   |   |   |   |   |   |--- class: 3
|   |   |   |   |   |   |   |--- no_of_nodes_in >  6.50
|   |   |   |   |   |   |   |   |--- block_of_affere <= 1.50
|   |   |   |   |   |   |   |   |   |--- class: 3
|   |   |   |   |   |   |   |   |--- block_of_affere >  1.50
|   |   |   |   |   |   |   |   |   |--- class: 4
|   |   |   |   |   |--- changes_in_stru >  4.50
|   |   |   |   |   |   |--- class: 4
|   |   |   |   |--- changes_in_stru >  5.50
|   |   |   |   |   |--- class: 3
|   |   |--- changes_in_node >  2.50
|   |   |   |--- no_of_nodes_in <= 5.50
|   |   |   |   |--- changes_in_stru <= 2.50
|   |   |   |   |   |--- class: 2
|   |   |   |   |--- changes_in_stru >  2.50
|   |   |   |   |   |--- dislocation_of <= 1.50
|   |   |   |   |   |   |--- class: 2
|   |   |   |   |   |--- dislocation_of >  1.50
|   |   |   |   |   |   |--- class: 3
|   |   |   |--- no_of_nodes_in >  5.50
|   |   |   |   |--- class: 2
|--- changes_in_node >  3.50
|   |--- block_of_affere <= 1.50
|   |   |--- class: 3
|   |--- block_of_affere >  1.50
|   |   |--- no_of_nodes_in <= 1.50
|   |   |   |--- class: 2
|   |   |--- no_of_nodes_in >  1.50
|   |   |   |--- no_of_nodes_in <= 6.50
|   |   |   |   |--- class: 3
|   |   |   |--- no_of_nodes_in >  6.50
|   |   |   |   |--- no_of_nodes_in <= 7.50
|   |   |   |   |   |--- class: 2
|   |   |   |   |--- no_of_nodes_in >  7.50
|   |   |   |   |   |--- class: 3
